digraph Tree {
node [shape=box] ;
0 [label="X[36] <= 0.5\ngini = 0.9\nsamples = 1437\nvalue = [151, 147, 141, 154, 151, 142, 137, 140, 135, 139]"] ;
1 [label="X[42] <= 7.5\ngini = 0.535\nsamples = 227\nvalue = [147, 0, 3, 1, 5, 19, 5, 0, 3, 44]"] ;
0 -> 1 [labeldistance=2.5, labelangle=45, headlabel="True"] ;
2 [label="X[21] <= 7.0\ngini = 0.437\nsamples = 62\nvalue = [1, 0, 1, 1, 0, 15, 0, 0, 0, 44]"] ;
1 -> 2 ;
3 [label="X[42] <= 3.5\ngini = 0.227\nsamples = 16\nvalue = [1, 0, 1, 0, 0, 14, 0, 0, 0, 0]"] ;
2 -> 3 ;
4 [label="gini = 0.0\nsamples = 14\nvalue = [0, 0, 0, 0, 0, 14, 0, 0, 0, 0]"] ;
3 -> 4 ;
5 [label="X[10] <= 14.5\ngini = 0.5\nsamples = 2\nvalue = [1, 0, 1, 0, 0, 0, 0, 0, 0, 0]"] ;
3 -> 5 ;
6 [label="gini = 0.0\nsamples = 1\nvalue = [1, 0, 0, 0, 0, 0, 0, 0, 0, 0]"] ;
5 -> 6 ;
7 [label="gini = 0.0\nsamples = 1\nvalue = [0, 0, 1, 0, 0, 0, 0, 0, 0, 0]"] ;
5 -> 7 ;
8 [label="X[60] <= 2.0\ngini = 0.084\nsamples = 46\nvalue = [0, 0, 0, 1, 0, 1, 0, 0, 0, 44]"] ;
2 -> 8 ;
9 [label="gini = 0.0\nsamples = 1\nvalue = [0, 0, 0, 0, 0, 1, 0, 0, 0, 0]"] ;
8 -> 9 ;
10 [label="X[18] <= 2.0\ngini = 0.043\nsamples = 45\nvalue = [0, 0, 0, 1, 0, 0, 0, 0, 0, 44]"] ;
8 -> 10 ;
11 [label="gini = 0.0\nsamples = 1\nvalue = [0, 0, 0, 1, 0, 0, 0, 0, 0, 0]"] ;
10 -> 11 ;
12 [label="gini = 0.0\nsamples = 44\nvalue = [0, 0, 0, 0, 0, 0, 0, 0, 0, 44]"] ;
10 -> 12 ;
13 [label="X[21] <= 0.5\ngini = 0.214\nsamples = 165\nvalue = [146, 0, 2, 0, 5, 4, 5, 0, 3, 0]"] ;
1 -> 13 ;
14 [label="X[30] <= 2.5\ngini = 0.729\nsamples = 15\nvalue = [0, 0, 2, 0, 5, 4, 4, 0, 0, 0]"] ;
13 -> 14 ;
15 [label="X[19] <= 4.0\ngini = 0.64\nsamples = 10\nvalue = [0, 0, 2, 0, 0, 4, 4, 0, 0, 0]"] ;
14 -> 15 ;
16 [label="gini = 0.0\nsamples = 4\nvalue = [0, 0, 0, 0, 0, 4, 0, 0, 0, 0]"] ;
15 -> 16 ;
17 [label="X[45] <= 1.0\ngini = 0.444\nsamples = 6\nvalue = [0, 0, 2, 0, 0, 0, 4, 0, 0, 0]"] ;
15 -> 17 ;
18 [label="gini = 0.0\nsamples = 2\nvalue = [0, 0, 2, 0, 0, 0, 0, 0, 0, 0]"] ;
17 -> 18 ;
19 [label="gini = 0.0\nsamples = 4\nvalue = [0, 0, 0, 0, 0, 0, 4, 0, 0, 0]"] ;
17 -> 19 ;
20 [label="gini = 0.0\nsamples = 5\nvalue = [0, 0, 0, 0, 5, 0, 0, 0, 0, 0]"] ;
14 -> 20 ;
21 [label="X[28] <= 4.5\ngini = 0.052\nsamples = 150\nvalue = [146, 0, 0, 0, 0, 0, 1, 0, 3, 0]"] ;
13 -> 21 ;
22 [label="gini = 0.0\nsamples = 146\nvalue = [146, 0, 0, 0, 0, 0, 0, 0, 0, 0]"] ;
21 -> 22 ;
23 [label="X[46] <= 3.0\ngini = 0.375\nsamples = 4\nvalue = [0, 0, 0, 0, 0, 0, 1, 0, 3, 0]"] ;
21 -> 23 ;
24 [label="gini = 0.0\nsamples = 3\nvalue = [0, 0, 0, 0, 0, 0, 0, 0, 3, 0]"] ;
23 -> 24 ;
25 [label="gini = 0.0\nsamples = 1\nvalue = [0, 0, 0, 0, 0, 0, 1, 0, 0, 0]"] ;
23 -> 25 ;
26 [label="X[26] <= 9.5\ngini = 0.888\nsamples = 1210\nvalue = [4, 147, 138, 153, 146, 123, 132, 140, 132, 95]"] ;
0 -> 26 [labeldistance=2.5, labelangle=-45, headlabel="False"] ;
27 [label="X[53] <= 0.5\ngini = 0.812\nsamples = 589\nvalue = [0, 74, 131, 148, 6, 8, 8, 123, 70, 21]"] ;
26 -> 27 ;
28 [label="X[19] <= 10.5\ngini = 0.412\nsamples = 154\nvalue = [0, 26, 0, 3, 0, 3, 0, 115, 6, 1]"] ;
27 -> 28 ;
29 [label="X[37] <= 0.5\ngini = 0.126\nsamples = 121\nvalue = [0, 0, 0, 3, 0, 0, 0, 113, 4, 1]"] ;
28 -> 29 ;
30 [label="X[18] <= 4.5\ngini = 0.444\nsamples = 6\nvalue = [0, 0, 0, 2, 0, 0, 0, 0, 4, 0]"] ;
29 -> 30 ;
31 [label="gini = 0.0\nsamples = 2\nvalue = [0, 0, 0, 2, 0, 0, 0, 0, 0, 0]"] ;
30 -> 31 ;
32 [label="gini = 0.0\nsamples = 4\nvalue = [0, 0, 0, 0, 0, 0, 0, 0, 4, 0]"] ;
30 -> 32 ;
33 [label="X[62] <= 6.0\ngini = 0.034\nsamples = 115\nvalue = [0, 0, 0, 1, 0, 0, 0, 113, 0, 1]"] ;
29 -> 33 ;
34 [label="gini = 0.0\nsamples = 113\nvalue = [0, 0, 0, 0, 0, 0, 0, 113, 0, 0]"] ;
33 -> 34 ;
35 [label="X[18] <= 11.0\ngini = 0.5\nsamples = 2\nvalue = [0, 0, 0, 1, 0, 0, 0, 0, 0, 1]"] ;
33 -> 35 ;
36 [label="gini = 0.0\nsamples = 1\nvalue = [0, 0, 0, 1, 0, 0, 0, 0, 0, 0]"] ;
35 -> 36 ;
37 [label="gini = 0.0\nsamples = 1\nvalue = [0, 0, 0, 0, 0, 0, 0, 0, 0, 1]"] ;
35 -> 37 ;
38 [label="X[2] <= 5.5\ngini = 0.364\nsamples = 33\nvalue = [0, 26, 0, 0, 0, 3, 0, 2, 2, 0]"] ;
28 -> 38 ;
39 [label="gini = 0.0\nsamples = 26\nvalue = [0, 26, 0, 0, 0, 0, 0, 0, 0, 0]"] ;
38 -> 39 ;
40 [label="X[42] <= 3.5\ngini = 0.653\nsamples = 7\nvalue = [0, 0, 0, 0, 0, 3, 0, 2, 2, 0]"] ;
38 -> 40 ;
41 [label="gini = 0.0\nsamples = 3\nvalue = [0, 0, 0, 0, 0, 3, 0, 0, 0, 0]"] ;
40 -> 41 ;
42 [label="X[29] <= 1.0\ngini = 0.5\nsamples = 4\nvalue = [0, 0, 0, 0, 0, 0, 0, 2, 2, 0]"] ;
40 -> 42 ;
43 [label="gini = 0.0\nsamples = 2\nvalue = [0, 0, 0, 0, 0, 0, 0, 0, 2, 0]"] ;
42 -> 43 ;
44 [label="gini = 0.0\nsamples = 2\nvalue = [0, 0, 0, 0, 0, 0, 0, 2, 0, 0]"] ;
42 -> 44 ;
45 [label="X[43] <= 1.5\ngini = 0.761\nsamples = 435\nvalue = [0, 48, 131, 145, 6, 5, 8, 8, 64, 20]"] ;
27 -> 45 ;
46 [label="X[29] <= 13.5\ngini = 0.434\nsamples = 173\nvalue = [0, 11, 2, 128, 0, 3, 0, 2, 9, 18]"] ;
45 -> 46 ;
47 [label="X[34] <= 9.0\ngini = 0.246\nsamples = 141\nvalue = [0, 5, 1, 122, 0, 2, 0, 0, 9, 2]"] ;
46 -> 47 ;
48 [label="X[19] <= 13.5\ngini = 0.158\nsamples = 132\nvalue = [0, 5, 1, 121, 0, 2, 0, 0, 1, 2]"] ;
47 -> 48 ;
49 [label="X[62] <= 14.0\ngini = 0.063\nsamples = 124\nvalue = [0, 0, 1, 120, 0, 1, 0, 0, 1, 1]"] ;
48 -> 49 ;
50 [label="X[18] <= 15.5\ngini = 0.048\nsamples = 123\nvalue = [0, 0, 0, 120, 0, 1, 0, 0, 1, 1]"] ;
49 -> 50 ;
51 [label="X[37] <= 1.5\ngini = 0.032\nsamples = 122\nvalue = [0, 0, 0, 120, 0, 0, 0, 0, 1, 1]"] ;
50 -> 51 ;
52 [label="X[10] <= 8.0\ngini = 0.5\nsamples = 2\nvalue = [0, 0, 0, 1, 0, 0, 0, 0, 1, 0]"] ;
51 -> 52 ;
53 [label="gini = 0.0\nsamples = 1\nvalue = [0, 0, 0, 0, 0, 0, 0, 0, 1, 0]"] ;
52 -> 53 ;
54 [label="gini = 0.0\nsamples = 1\nvalue = [0, 0, 0, 1, 0, 0, 0, 0, 0, 0]"] ;
52 -> 54 ;
55 [label="X[4] <= 7.5\ngini = 0.017\nsamples = 120\nvalue = [0, 0, 0, 119, 0, 0, 0, 0, 0, 1]"] ;
51 -> 55 ;
56 [label="X[11] <= 6.5\ngini = 0.375\nsamples = 4\nvalue = [0, 0, 0, 3, 0, 0, 0, 0, 0, 1]"] ;
55 -> 56 ;
57 [label="gini = 0.0\nsamples = 1\nvalue = [0, 0, 0, 0, 0, 0, 0, 0, 0, 1]"] ;
56 -> 57 ;
58 [label="gini = 0.0\nsamples = 3\nvalue = [0, 0, 0, 3, 0, 0, 0, 0, 0, 0]"] ;
56 -> 58 ;
59 [label="gini = 0.0\nsamples = 116\nvalue = [0, 0, 0, 116, 0, 0, 0, 0, 0, 0]"] ;
55 -> 59 ;
60 [label="gini = 0.0\nsamples = 1\nvalue = [0, 0, 0, 0, 0, 1, 0, 0, 0, 0]"] ;
50 -> 60 ;
61 [label="gini = 0.0\nsamples = 1\nvalue = [0, 0, 1, 0, 0, 0, 0, 0, 0, 0]"] ;
49 -> 61 ;
62 [label="X[62] <= 0.5\ngini = 0.562\nsamples = 8\nvalue = [0, 5, 0, 1, 0, 1, 0, 0, 0, 1]"] ;
48 -> 62 ;
63 [label="X[37] <= 11.5\ngini = 0.667\nsamples = 3\nvalue = [0, 0, 0, 1, 0, 1, 0, 0, 0, 1]"] ;
62 -> 63 ;
64 [label="X[42] <= 1.0\ngini = 0.5\nsamples = 2\nvalue = [0, 0, 0, 1, 0, 1, 0, 0, 0, 0]"] ;
63 -> 64 ;
65 [label="gini = 0.0\nsamples = 1\nvalue = [0, 0, 0, 1, 0, 0, 0, 0, 0, 0]"] ;
64 -> 65 ;
66 [label="gini = 0.0\nsamples = 1\nvalue = [0, 0, 0, 0, 0, 1, 0, 0, 0, 0]"] ;
64 -> 66 ;
67 [label="gini = 0.0\nsamples = 1\nvalue = [0, 0, 0, 0, 0, 0, 0, 0, 0, 1]"] ;
63 -> 67 ;
68 [label="gini = 0.0\nsamples = 5\nvalue = [0, 5, 0, 0, 0, 0, 0, 0, 0, 0]"] ;
62 -> 68 ;
69 [label="X[17] <= 1.0\ngini = 0.198\nsamples = 9\nvalue = [0, 0, 0, 1, 0, 0, 0, 0, 8, 0]"] ;
47 -> 69 ;
70 [label="gini = 0.0\nsamples = 8\nvalue = [0, 0, 0, 0, 0, 0, 0, 0, 8, 0]"] ;
69 -> 70 ;
71 [label="gini = 0.0\nsamples = 1\nvalue = [0, 0, 0, 1, 0, 0, 0, 0, 0, 0]"] ;
69 -> 71 ;
72 [label="X[3] <= 3.5\ngini = 0.674\nsamples = 32\nvalue = [0, 6, 1, 6, 0, 1, 0, 2, 0, 16]"] ;
46 -> 72 ;
73 [label="gini = 0.0\nsamples = 6\nvalue = [0, 6, 0, 0, 0, 0, 0, 0, 0, 0]"] ;
72 -> 73 ;
74 [label="X[26] <= 1.0\ngini = 0.559\nsamples = 26\nvalue = [0, 0, 1, 6, 0, 1, 0, 2, 0, 16]"] ;
72 -> 74 ;
75 [label="X[30] <= 5.5\ngini = 0.406\nsamples = 8\nvalue = [0, 0, 1, 6, 0, 0, 0, 1, 0, 0]"] ;
74 -> 75 ;
76 [label="gini = 0.0\nsamples = 6\nvalue = [0, 0, 0, 6, 0, 0, 0, 0, 0, 0]"] ;
75 -> 76 ;
77 [label="X[62] <= 8.0\ngini = 0.5\nsamples = 2\nvalue = [0, 0, 1, 0, 0, 0, 0, 1, 0, 0]"] ;
75 -> 77 ;
78 [label="gini = 0.0\nsamples = 1\nvalue = [0, 0, 0, 0, 0, 0, 0, 1, 0, 0]"] ;
77 -> 78 ;
79 [label="gini = 0.0\nsamples = 1\nvalue = [0, 0, 1, 0, 0, 0, 0, 0, 0, 0]"] ;
77 -> 79 ;
80 [label="X[36] <= 14.0\ngini = 0.204\nsamples = 18\nvalue = [0, 0, 0, 0, 0, 1, 0, 1, 0, 16]"] ;
74 -> 80 ;
81 [label="X[42] <= 8.0\ngini = 0.111\nsamples = 17\nvalue = [0, 0, 0, 0, 0, 1, 0, 0, 0, 16]"] ;
80 -> 81 ;
82 [label="gini = 0.0\nsamples = 16\nvalue = [0, 0, 0, 0, 0, 0, 0, 0, 0, 16]"] ;
81 -> 82 ;
83 [label="gini = 0.0\nsamples = 1\nvalue = [0, 0, 0, 0, 0, 1, 0, 0, 0, 0]"] ;
81 -> 83 ;
84 [label="gini = 0.0\nsamples = 1\nvalue = [0, 0, 0, 0, 0, 0, 0, 1, 0, 0]"] ;
80 -> 84 ;
85 [label="X[27] <= 9.5\ngini = 0.687\nsamples = 262\nvalue = [0, 37, 129, 17, 6, 2, 8, 6, 55, 2]"] ;
45 -> 85 ;
86 [label="X[38] <= 0.5\ngini = 0.237\nsamples = 116\nvalue = [0, 1, 101, 4, 0, 0, 3, 6, 0, 1]"] ;
85 -> 86 ;
87 [label="X[33] <= 4.5\ngini = 0.057\nsamples = 103\nvalue = [0, 1, 100, 1, 0, 0, 1, 0, 0, 0]"] ;
86 -> 87 ;
88 [label="X[50] <= 0.5\ngini = 0.039\nsamples = 102\nvalue = [0, 1, 100, 1, 0, 0, 0, 0, 0, 0]"] ;
87 -> 88 ;
89 [label="X[63] <= 2.5\ngini = 0.667\nsamples = 3\nvalue = [0, 1, 1, 1, 0, 0, 0, 0, 0, 0]"] ;
88 -> 89 ;
90 [label="X[51] <= 9.5\ngini = 0.5\nsamples = 2\nvalue = [0, 1, 0, 1, 0, 0, 0, 0, 0, 0]"] ;
89 -> 90 ;
91 [label="gini = 0.0\nsamples = 1\nvalue = [0, 0, 0, 1, 0, 0, 0, 0, 0, 0]"] ;
90 -> 91 ;
92 [label="gini = 0.0\nsamples = 1\nvalue = [0, 1, 0, 0, 0, 0, 0, 0, 0, 0]"] ;
90 -> 92 ;
93 [label="gini = 0.0\nsamples = 1\nvalue = [0, 0, 1, 0, 0, 0, 0, 0, 0, 0]"] ;
89 -> 93 ;
94 [label="gini = 0.0\nsamples = 99\nvalue = [0, 0, 99, 0, 0, 0, 0, 0, 0, 0]"] ;
88 -> 94 ;
95 [label="gini = 0.0\nsamples = 1\nvalue = [0, 0, 0, 0, 0, 0, 1, 0, 0, 0]"] ;
87 -> 95 ;
96 [label="X[53] <= 6.5\ngini = 0.698\nsamples = 13\nvalue = [0, 0, 1, 3, 0, 0, 2, 6, 0, 1]"] ;
86 -> 96 ;
97 [label="gini = 0.0\nsamples = 6\nvalue = [0, 0, 0, 0, 0, 0, 0, 6, 0, 0]"] ;
96 -> 97 ;
98 [label="X[18] <= 11.0\ngini = 0.694\nsamples = 7\nvalue = [0, 0, 1, 3, 0, 0, 2, 0, 0, 1]"] ;
96 -> 98 ;
99 [label="X[41] <= 1.0\ngini = 0.625\nsamples = 4\nvalue = [0, 0, 1, 0, 0, 0, 2, 0, 0, 1]"] ;
98 -> 99 ;
100 [label="X[37] <= 15.5\ngini = 0.5\nsamples = 2\nvalue = [0, 0, 1, 0, 0, 0, 0, 0, 0, 1]"] ;
99 -> 100 ;
101 [label="gini = 0.0\nsamples = 1\nvalue = [0, 0, 1, 0, 0, 0, 0, 0, 0, 0]"] ;
100 -> 101 ;
102 [label="gini = 0.0\nsamples = 1\nvalue = [0, 0, 0, 0, 0, 0, 0, 0, 0, 1]"] ;
100 -> 102 ;
103 [label="gini = 0.0\nsamples = 2\nvalue = [0, 0, 0, 0, 0, 0, 2, 0, 0, 0]"] ;
99 -> 103 ;
104 [label="gini = 0.0\nsamples = 3\nvalue = [0, 0, 0, 3, 0, 0, 0, 0, 0, 0]"] ;
98 -> 104 ;
105 [label="X[36] <= 9.5\ngini = 0.749\nsamples = 146\nvalue = [0, 36, 28, 13, 6, 2, 5, 0, 55, 1]"] ;
85 -> 105 ;
106 [label="X[5] <= 8.5\ngini = 0.231\nsamples = 30\nvalue = [0, 0, 26, 4, 0, 0, 0, 0, 0, 0]"] ;
105 -> 106 ;
107 [label="gini = 0.0\nsamples = 26\nvalue = [0, 0, 26, 0, 0, 0, 0, 0, 0, 0]"] ;
106 -> 107 ;
108 [label="gini = 0.0\nsamples = 4\nvalue = [0, 0, 0, 4, 0, 0, 0, 0, 0, 0]"] ;
106 -> 108 ;
109 [label="X[44] <= 14.5\ngini = 0.668\nsamples = 116\nvalue = [0, 36, 2, 9, 6, 2, 5, 0, 55, 1]"] ;
105 -> 109 ;
110 [label="X[21] <= 4.5\ngini = 0.433\nsamples = 62\nvalue = [0, 4, 2, 5, 0, 0, 4, 0, 46, 1]"] ;
109 -> 110 ;
111 [label="X[10] <= 2.5\ngini = 0.72\nsamples = 10\nvalue = [0, 3, 1, 1, 0, 0, 4, 0, 1, 0]"] ;
110 -> 111 ;
112 [label="gini = 0.0\nsamples = 4\nvalue = [0, 0, 0, 0, 0, 0, 4, 0, 0, 0]"] ;
111 -> 112 ;
113 [label="X[19] <= 14.5\ngini = 0.667\nsamples = 6\nvalue = [0, 3, 1, 1, 0, 0, 0, 0, 1, 0]"] ;
111 -> 113 ;
114 [label="X[46] <= 3.0\ngini = 0.667\nsamples = 3\nvalue = [0, 0, 1, 1, 0, 0, 0, 0, 1, 0]"] ;
113 -> 114 ;
115 [label="gini = 0.0\nsamples = 1\nvalue = [0, 0, 0, 0, 0, 0, 0, 0, 1, 0]"] ;
114 -> 115 ;
116 [label="X[13] <= 1.0\ngini = 0.5\nsamples = 2\nvalue = [0, 0, 1, 1, 0, 0, 0, 0, 0, 0]"] ;
114 -> 116 ;
117 [label="gini = 0.0\nsamples = 1\nvalue = [0, 0, 1, 0, 0, 0, 0, 0, 0, 0]"] ;
116 -> 117 ;
118 [label="gini = 0.0\nsamples = 1\nvalue = [0, 0, 0, 1, 0, 0, 0, 0, 0, 0]"] ;
116 -> 118 ;
119 [label="gini = 0.0\nsamples = 3\nvalue = [0, 3, 0, 0, 0, 0, 0, 0, 0, 0]"] ;
113 -> 119 ;
120 [label="X[18] <= 3.5\ngini = 0.244\nsamples = 52\nvalue = [0, 1, 1, 4, 0, 0, 0, 0, 45, 1]"] ;
110 -> 120 ;
121 [label="X[19] <= 9.5\ngini = 0.594\nsamples = 8\nvalue = [0, 1, 0, 4, 0, 0, 0, 0, 3, 0]"] ;
120 -> 121 ;
122 [label="gini = 0.0\nsamples = 4\nvalue = [0, 0, 0, 4, 0, 0, 0, 0, 0, 0]"] ;
121 -> 122 ;
123 [label="X[37] <= 1.5\ngini = 0.375\nsamples = 4\nvalue = [0, 1, 0, 0, 0, 0, 0, 0, 3, 0]"] ;
121 -> 123 ;
124 [label="gini = 0.0\nsamples = 1\nvalue = [0, 1, 0, 0, 0, 0, 0, 0, 0, 0]"] ;
123 -> 124 ;
125 [label="gini = 0.0\nsamples = 3\nvalue = [0, 0, 0, 0, 0, 0, 0, 0, 3, 0]"] ;
123 -> 125 ;
126 [label="X[25] <= 2.0\ngini = 0.088\nsamples = 44\nvalue = [0, 0, 1, 0, 0, 0, 0, 0, 42, 1]"] ;
120 -> 126 ;
127 [label="X[28] <= 9.0\ngini = 0.045\nsamples = 43\nvalue = [0, 0, 0, 0, 0, 0, 0, 0, 42, 1]"] ;
126 -> 127 ;
128 [label="X[54] <= 4.0\ngini = 0.5\nsamples = 2\nvalue = [0, 0, 0, 0, 0, 0, 0, 0, 1, 1]"] ;
127 -> 128 ;
129 [label="gini = 0.0\nsamples = 1\nvalue = [0, 0, 0, 0, 0, 0, 0, 0, 0, 1]"] ;
128 -> 129 ;
130 [label="gini = 0.0\nsamples = 1\nvalue = [0, 0, 0, 0, 0, 0, 0, 0, 1, 0]"] ;
128 -> 130 ;
131 [label="gini = 0.0\nsamples = 41\nvalue = [0, 0, 0, 0, 0, 0, 0, 0, 41, 0]"] ;
127 -> 131 ;
132 [label="gini = 0.0\nsamples = 1\nvalue = [0, 0, 1, 0, 0, 0, 0, 0, 0, 0]"] ;
126 -> 132 ;
133 [label="X[46] <= 1.5\ngini = 0.602\nsamples = 54\nvalue = [0, 32, 0, 4, 6, 2, 1, 0, 9, 0]"] ;
109 -> 133 ;
134 [label="X[10] <= 8.5\ngini = 0.511\nsamples = 48\nvalue = [0, 32, 0, 4, 0, 2, 1, 0, 9, 0]"] ;
133 -> 134 ;
135 [label="X[22] <= 1.5\ngini = 0.169\nsamples = 33\nvalue = [0, 30, 0, 0, 0, 0, 1, 0, 2, 0]"] ;
134 -> 135 ;
136 [label="X[28] <= 3.0\ngini = 0.064\nsamples = 30\nvalue = [0, 29, 0, 0, 0, 0, 1, 0, 0, 0]"] ;
135 -> 136 ;
137 [label="gini = 0.0\nsamples = 1\nvalue = [0, 0, 0, 0, 0, 0, 1, 0, 0, 0]"] ;
136 -> 137 ;
138 [label="gini = 0.0\nsamples = 29\nvalue = [0, 29, 0, 0, 0, 0, 0, 0, 0, 0]"] ;
136 -> 138 ;
139 [label="X[37] <= 3.5\ngini = 0.444\nsamples = 3\nvalue = [0, 1, 0, 0, 0, 0, 0, 0, 2, 0]"] ;
135 -> 139 ;
140 [label="gini = 0.0\nsamples = 2\nvalue = [0, 0, 0, 0, 0, 0, 0, 0, 2, 0]"] ;
139 -> 140 ;
141 [label="gini = 0.0\nsamples = 1\nvalue = [0, 1, 0, 0, 0, 0, 0, 0, 0, 0]"] ;
139 -> 141 ;
142 [label="X[42] <= 6.0\ngini = 0.676\nsamples = 15\nvalue = [0, 2, 0, 4, 0, 2, 0, 0, 7, 0]"] ;
134 -> 142 ;
143 [label="X[13] <= 14.5\ngini = 0.656\nsamples = 8\nvalue = [0, 1, 0, 4, 0, 2, 0, 0, 1, 0]"] ;
142 -> 143 ;
144 [label="X[53] <= 7.5\ngini = 0.625\nsamples = 4\nvalue = [0, 1, 0, 0, 0, 2, 0, 0, 1, 0]"] ;
143 -> 144 ;
145 [label="gini = 0.0\nsamples = 2\nvalue = [0, 0, 0, 0, 0, 2, 0, 0, 0, 0]"] ;
144 -> 145 ;
146 [label="X[51] <= 14.0\ngini = 0.5\nsamples = 2\nvalue = [0, 1, 0, 0, 0, 0, 0, 0, 1, 0]"] ;
144 -> 146 ;
147 [label="gini = 0.0\nsamples = 1\nvalue = [0, 1, 0, 0, 0, 0, 0, 0, 0, 0]"] ;
146 -> 147 ;
148 [label="gini = 0.0\nsamples = 1\nvalue = [0, 0, 0, 0, 0, 0, 0, 0, 1, 0]"] ;
146 -> 148 ;
149 [label="gini = 0.0\nsamples = 4\nvalue = [0, 0, 0, 4, 0, 0, 0, 0, 0, 0]"] ;
143 -> 149 ;
150 [label="X[12] <= 14.0\ngini = 0.245\nsamples = 7\nvalue = [0, 1, 0, 0, 0, 0, 0, 0, 6, 0]"] ;
142 -> 150 ;
151 [label="gini = 0.0\nsamples = 6\nvalue = [0, 0, 0, 0, 0, 0, 0, 0, 6, 0]"] ;
150 -> 151 ;
152 [label="gini = 0.0\nsamples = 1\nvalue = [0, 1, 0, 0, 0, 0, 0, 0, 0, 0]"] ;
150 -> 152 ;
153 [label="gini = 0.0\nsamples = 6\nvalue = [0, 0, 0, 0, 6, 0, 0, 0, 0, 0]"] ;
133 -> 153 ;
154 [label="X[21] <= 0.5\ngini = 0.836\nsamples = 621\nvalue = [4, 73, 7, 5, 140, 115, 124, 17, 62, 74]"] ;
26 -> 154 ;
155 [label="X[42] <= 8.5\ngini = 0.652\nsamples = 282\nvalue = [0, 14, 5, 3, 26, 109, 122, 0, 3, 0]"] ;
154 -> 155 ;
156 [label="X[5] <= 1.5\ngini = 0.356\nsamples = 133\nvalue = [0, 9, 5, 3, 6, 106, 1, 0, 3, 0]"] ;
155 -> 156 ;
157 [label="X[62] <= 14.5\ngini = 0.771\nsamples = 24\nvalue = [0, 9, 5, 2, 4, 1, 1, 0, 2, 0]"] ;
156 -> 157 ;
158 [label="X[29] <= 6.5\ngini = 0.797\nsamples = 16\nvalue = [0, 1, 5, 2, 4, 1, 1, 0, 2, 0]"] ;
157 -> 158 ;
159 [label="X[27] <= 6.5\ngini = 0.75\nsamples = 12\nvalue = [0, 1, 5, 2, 0, 1, 1, 0, 2, 0]"] ;
158 -> 159 ;
160 [label="gini = 0.0\nsamples = 5\nvalue = [0, 0, 5, 0, 0, 0, 0, 0, 0, 0]"] ;
159 -> 160 ;
161 [label="X[62] <= 0.5\ngini = 0.776\nsamples = 7\nvalue = [0, 1, 0, 2, 0, 1, 1, 0, 2, 0]"] ;
159 -> 161 ;
162 [label="gini = 0.0\nsamples = 2\nvalue = [0, 0, 0, 2, 0, 0, 0, 0, 0, 0]"] ;
161 -> 162 ;
163 [label="X[10] <= 13.5\ngini = 0.72\nsamples = 5\nvalue = [0, 1, 0, 0, 0, 1, 1, 0, 2, 0]"] ;
161 -> 163 ;
164 [label="X[1] <= 1.0\ngini = 0.667\nsamples = 3\nvalue = [0, 1, 0, 0, 0, 1, 1, 0, 0, 0]"] ;
163 -> 164 ;
165 [label="X[55] <= 4.0\ngini = 0.5\nsamples = 2\nvalue = [0, 1, 0, 0, 0, 0, 1, 0, 0, 0]"] ;
164 -> 165 ;
166 [label="gini = 0.0\nsamples = 1\nvalue = [0, 0, 0, 0, 0, 0, 1, 0, 0, 0]"] ;
165 -> 166 ;
167 [label="gini = 0.0\nsamples = 1\nvalue = [0, 1, 0, 0, 0, 0, 0, 0, 0, 0]"] ;
165 -> 167 ;
168 [label="gini = 0.0\nsamples = 1\nvalue = [0, 0, 0, 0, 0, 1, 0, 0, 0, 0]"] ;
164 -> 168 ;
169 [label="gini = 0.0\nsamples = 2\nvalue = [0, 0, 0, 0, 0, 0, 0, 0, 2, 0]"] ;
163 -> 169 ;
170 [label="gini = 0.0\nsamples = 4\nvalue = [0, 0, 0, 0, 4, 0, 0, 0, 0, 0]"] ;
158 -> 170 ;
171 [label="gini = 0.0\nsamples = 8\nvalue = [0, 8, 0, 0, 0, 0, 0, 0, 0, 0]"] ;
157 -> 171 ;
172 [label="X[18] <= 4.5\ngini = 0.072\nsamples = 109\nvalue = [0, 0, 0, 1, 2, 105, 0, 0, 1, 0]"] ;
156 -> 172 ;
173 [label="X[60] <= 15.0\ngini = 0.5\nsamples = 2\nvalue = [0, 0, 0, 1, 1, 0, 0, 0, 0, 0]"] ;
172 -> 173 ;
174 [label="gini = 0.0\nsamples = 1\nvalue = [0, 0, 0, 1, 0, 0, 0, 0, 0, 0]"] ;
173 -> 174 ;
175 [label="gini = 0.0\nsamples = 1\nvalue = [0, 0, 0, 0, 1, 0, 0, 0, 0, 0]"] ;
173 -> 175 ;
176 [label="X[16] <= 0.5\ngini = 0.037\nsamples = 107\nvalue = [0, 0, 0, 0, 1, 105, 0, 0, 1, 0]"] ;
172 -> 176 ;
177 [label="X[24] <= 0.5\ngini = 0.019\nsamples = 106\nvalue = [0, 0, 0, 0, 1, 105, 0, 0, 0, 0]"] ;
176 -> 177 ;
178 [label="gini = 0.0\nsamples = 105\nvalue = [0, 0, 0, 0, 0, 105, 0, 0, 0, 0]"] ;
177 -> 178 ;
179 [label="gini = 0.0\nsamples = 1\nvalue = [0, 0, 0, 0, 1, 0, 0, 0, 0, 0]"] ;
177 -> 179 ;
180 [label="gini = 0.0\nsamples = 1\nvalue = [0, 0, 0, 0, 0, 0, 0, 0, 1, 0]"] ;
176 -> 180 ;
181 [label="X[54] <= 1.5\ngini = 0.321\nsamples = 149\nvalue = [0, 5, 0, 0, 20, 3, 121, 0, 0, 0]"] ;
155 -> 181 ;
182 [label="X[37] <= 5.5\ngini = 0.593\nsamples = 34\nvalue = [0, 5, 0, 0, 20, 3, 6, 0, 0, 0]"] ;
181 -> 182 ;
183 [label="X[20] <= 9.0\ngini = 0.579\nsamples = 11\nvalue = [0, 5, 0, 0, 1, 0, 5, 0, 0, 0]"] ;
182 -> 183 ;
184 [label="X[61] <= 4.0\ngini = 0.278\nsamples = 6\nvalue = [0, 0, 0, 0, 1, 0, 5, 0, 0, 0]"] ;
183 -> 184 ;
185 [label="gini = 0.0\nsamples = 1\nvalue = [0, 0, 0, 0, 1, 0, 0, 0, 0, 0]"] ;
184 -> 185 ;
186 [label="gini = 0.0\nsamples = 5\nvalue = [0, 0, 0, 0, 0, 0, 5, 0, 0, 0]"] ;
184 -> 186 ;
187 [label="gini = 0.0\nsamples = 5\nvalue = [0, 5, 0, 0, 0, 0, 0, 0, 0, 0]"] ;
183 -> 187 ;
188 [label="X[44] <= 7.5\ngini = 0.299\nsamples = 23\nvalue = [0, 0, 0, 0, 19, 3, 1, 0, 0, 0]"] ;
182 -> 188 ;
189 [label="gini = 0.0\nsamples = 3\nvalue = [0, 0, 0, 0, 0, 3, 0, 0, 0, 0]"] ;
188 -> 189 ;
190 [label="X[41] <= 1.0\ngini = 0.095\nsamples = 20\nvalue = [0, 0, 0, 0, 19, 0, 1, 0, 0, 0]"] ;
188 -> 190 ;
191 [label="gini = 0.0\nsamples = 1\nvalue = [0, 0, 0, 0, 0, 0, 1, 0, 0, 0]"] ;
190 -> 191 ;
192 [label="gini = 0.0\nsamples = 19\nvalue = [0, 0, 0, 0, 19, 0, 0, 0, 0, 0]"] ;
190 -> 192 ;
193 [label="gini = 0.0\nsamples = 115\nvalue = [0, 0, 0, 0, 0, 0, 115, 0, 0, 0]"] ;
181 -> 193 ;
194 [label="X[33] <= 3.5\ngini = 0.776\nsamples = 339\nvalue = [4, 59, 2, 2, 114, 6, 2, 17, 59, 74]"] ;
154 -> 194 ;
195 [label="X[20] <= 15.5\ngini = 0.748\nsamples = 204\nvalue = [2, 41, 2, 2, 7, 6, 0, 15, 56, 73]"] ;
194 -> 195 ;
196 [label="X[43] <= 3.5\ngini = 0.665\nsamples = 155\nvalue = [2, 3, 0, 1, 7, 6, 0, 12, 54, 70]"] ;
195 -> 196 ;
197 [label="X[28] <= 6.0\ngini = 0.407\nsamples = 83\nvalue = [0, 1, 0, 1, 0, 5, 0, 5, 8, 63]"] ;
196 -> 197 ;
198 [label="X[51] <= 5.5\ngini = 0.64\nsamples = 10\nvalue = [0, 1, 0, 1, 0, 0, 0, 5, 3, 0]"] ;
197 -> 198 ;
199 [label="X[28] <= 1.0\ngini = 0.56\nsamples = 5\nvalue = [0, 1, 0, 1, 0, 0, 0, 0, 3, 0]"] ;
198 -> 199 ;
200 [label="X[13] <= 15.0\ngini = 0.5\nsamples = 2\nvalue = [0, 1, 0, 1, 0, 0, 0, 0, 0, 0]"] ;
199 -> 200 ;
201 [label="gini = 0.0\nsamples = 1\nvalue = [0, 0, 0, 1, 0, 0, 0, 0, 0, 0]"] ;
200 -> 201 ;
202 [label="gini = 0.0\nsamples = 1\nvalue = [0, 1, 0, 0, 0, 0, 0, 0, 0, 0]"] ;
200 -> 202 ;
203 [label="gini = 0.0\nsamples = 3\nvalue = [0, 0, 0, 0, 0, 0, 0, 0, 3, 0]"] ;
199 -> 203 ;
204 [label="gini = 0.0\nsamples = 5\nvalue = [0, 0, 0, 0, 0, 0, 0, 5, 0, 0]"] ;
198 -> 204 ;
205 [label="X[42] <= 9.0\ngini = 0.246\nsamples = 73\nvalue = [0, 0, 0, 0, 0, 5, 0, 0, 5, 63]"] ;
197 -> 205 ;
206 [label="X[21] <= 7.0\ngini = 0.136\nsamples = 68\nvalue = [0, 0, 0, 0, 0, 5, 0, 0, 0, 63]"] ;
205 -> 206 ;
207 [label="X[59] <= 8.5\ngini = 0.278\nsamples = 6\nvalue = [0, 0, 0, 0, 0, 5, 0, 0, 0, 1]"] ;
206 -> 207 ;
208 [label="gini = 0.0\nsamples = 1\nvalue = [0, 0, 0, 0, 0, 0, 0, 0, 0, 1]"] ;
207 -> 208 ;
209 [label="gini = 0.0\nsamples = 5\nvalue = [0, 0, 0, 0, 0, 5, 0, 0, 0, 0]"] ;
207 -> 209 ;
210 [label="gini = 0.0\nsamples = 62\nvalue = [0, 0, 0, 0, 0, 0, 0, 0, 0, 62]"] ;
206 -> 210 ;
211 [label="gini = 0.0\nsamples = 5\nvalue = [0, 0, 0, 0, 0, 0, 0, 0, 5, 0]"] ;
205 -> 211 ;
212 [label="X[60] <= 7.5\ngini = 0.562\nsamples = 72\nvalue = [2, 2, 0, 0, 7, 1, 0, 7, 46, 7]"] ;
196 -> 212 ;
213 [label="X[4] <= 7.5\ngini = 0.72\nsamples = 19\nvalue = [0, 0, 0, 0, 5, 1, 0, 7, 1, 5]"] ;
212 -> 213 ;
214 [label="X[52] <= 14.0\ngini = 0.278\nsamples = 6\nvalue = [0, 0, 0, 0, 5, 1, 0, 0, 0, 0]"] ;
213 -> 214 ;
215 [label="gini = 0.0\nsamples = 5\nvalue = [0, 0, 0, 0, 5, 0, 0, 0, 0, 0]"] ;
214 -> 215 ;
216 [label="gini = 0.0\nsamples = 1\nvalue = [0, 0, 0, 0, 0, 1, 0, 0, 0, 0]"] ;
214 -> 216 ;
217 [label="X[17] <= 4.0\ngini = 0.556\nsamples = 13\nvalue = [0, 0, 0, 0, 0, 0, 0, 7, 1, 5]"] ;
213 -> 217 ;
218 [label="gini = 0.0\nsamples = 7\nvalue = [0, 0, 0, 0, 0, 0, 0, 7, 0, 0]"] ;
217 -> 218 ;
219 [label="X[35] <= 14.0\ngini = 0.278\nsamples = 6\nvalue = [0, 0, 0, 0, 0, 0, 0, 0, 1, 5]"] ;
217 -> 219 ;
220 [label="gini = 0.0\nsamples = 5\nvalue = [0, 0, 0, 0, 0, 0, 0, 0, 0, 5]"] ;
219 -> 220 ;
221 [label="gini = 0.0\nsamples = 1\nvalue = [0, 0, 0, 0, 0, 0, 0, 0, 1, 0]"] ;
219 -> 221 ;
222 [label="X[21] <= 4.5\ngini = 0.273\nsamples = 53\nvalue = [2, 2, 0, 0, 2, 0, 0, 0, 45, 2]"] ;
212 -> 222 ;
223 [label="X[12] <= 12.0\ngini = 0.5\nsamples = 4\nvalue = [0, 2, 0, 0, 2, 0, 0, 0, 0, 0]"] ;
222 -> 223 ;
224 [label="gini = 0.0\nsamples = 2\nvalue = [0, 0, 0, 0, 2, 0, 0, 0, 0, 0]"] ;
223 -> 224 ;
225 [label="gini = 0.0\nsamples = 2\nvalue = [0, 2, 0, 0, 0, 0, 0, 0, 0, 0]"] ;
223 -> 225 ;
226 [label="X[28] <= 4.5\ngini = 0.153\nsamples = 49\nvalue = [2, 0, 0, 0, 0, 0, 0, 0, 45, 2]"] ;
222 -> 226 ;
227 [label="X[20] <= 1.5\ngini = 0.444\nsamples = 3\nvalue = [2, 0, 0, 0, 0, 0, 0, 0, 0, 1]"] ;
226 -> 227 ;
228 [label="gini = 0.0\nsamples = 2\nvalue = [2, 0, 0, 0, 0, 0, 0, 0, 0, 0]"] ;
227 -> 228 ;
229 [label="gini = 0.0\nsamples = 1\nvalue = [0, 0, 0, 0, 0, 0, 0, 0, 0, 1]"] ;
227 -> 229 ;
230 [label="X[35] <= 5.0\ngini = 0.043\nsamples = 46\nvalue = [0, 0, 0, 0, 0, 0, 0, 0, 45, 1]"] ;
226 -> 230 ;
231 [label="gini = 0.0\nsamples = 1\nvalue = [0, 0, 0, 0, 0, 0, 0, 0, 0, 1]"] ;
230 -> 231 ;
232 [label="gini = 0.0\nsamples = 45\nvalue = [0, 0, 0, 0, 0, 0, 0, 0, 45, 0]"] ;
230 -> 232 ;
233 [label="X[9] <= 0.5\ngini = 0.387\nsamples = 49\nvalue = [0, 38, 2, 1, 0, 0, 0, 3, 2, 3]"] ;
195 -> 233 ;
234 [label="X[52] <= 3.0\ngini = 0.178\nsamples = 42\nvalue = [0, 38, 0, 0, 0, 0, 0, 2, 1, 1]"] ;
233 -> 234 ;
235 [label="X[34] <= 2.0\ngini = 0.444\nsamples = 3\nvalue = [0, 0, 0, 0, 0, 0, 0, 2, 0, 1]"] ;
234 -> 235 ;
236 [label="gini = 0.0\nsamples = 1\nvalue = [0, 0, 0, 0, 0, 0, 0, 0, 0, 1]"] ;
235 -> 236 ;
237 [label="gini = 0.0\nsamples = 2\nvalue = [0, 0, 0, 0, 0, 0, 0, 2, 0, 0]"] ;
235 -> 237 ;
238 [label="X[28] <= 7.0\ngini = 0.05\nsamples = 39\nvalue = [0, 38, 0, 0, 0, 0, 0, 0, 1, 0]"] ;
234 -> 238 ;
239 [label="X[45] <= 8.0\ngini = 0.5\nsamples = 2\nvalue = [0, 1, 0, 0, 0, 0, 0, 0, 1, 0]"] ;
238 -> 239 ;
240 [label="gini = 0.0\nsamples = 1\nvalue = [0, 0, 0, 0, 0, 0, 0, 0, 1, 0]"] ;
239 -> 240 ;
241 [label="gini = 0.0\nsamples = 1\nvalue = [0, 1, 0, 0, 0, 0, 0, 0, 0, 0]"] ;
239 -> 241 ;
242 [label="gini = 0.0\nsamples = 37\nvalue = [0, 37, 0, 0, 0, 0, 0, 0, 0, 0]"] ;
238 -> 242 ;
243 [label="X[51] <= 15.0\ngini = 0.776\nsamples = 7\nvalue = [0, 0, 2, 1, 0, 0, 0, 1, 1, 2]"] ;
233 -> 243 ;
244 [label="X[46] <= 5.0\ngini = 0.72\nsamples = 5\nvalue = [0, 0, 0, 1, 0, 0, 0, 1, 1, 2]"] ;
243 -> 244 ;
245 [label="X[14] <= 0.5\ngini = 0.667\nsamples = 3\nvalue = [0, 0, 0, 1, 0, 0, 0, 1, 1, 0]"] ;
244 -> 245 ;
246 [label="X[1] <= 2.0\ngini = 0.5\nsamples = 2\nvalue = [0, 0, 0, 1, 0, 0, 0, 1, 0, 0]"] ;
245 -> 246 ;
247 [label="gini = 0.0\nsamples = 1\nvalue = [0, 0, 0, 0, 0, 0, 0, 1, 0, 0]"] ;
246 -> 247 ;
248 [label="gini = 0.0\nsamples = 1\nvalue = [0, 0, 0, 1, 0, 0, 0, 0, 0, 0]"] ;
246 -> 248 ;
249 [label="gini = 0.0\nsamples = 1\nvalue = [0, 0, 0, 0, 0, 0, 0, 0, 1, 0]"] ;
245 -> 249 ;
250 [label="gini = 0.0\nsamples = 2\nvalue = [0, 0, 0, 0, 0, 0, 0, 0, 0, 2]"] ;
244 -> 250 ;
251 [label="gini = 0.0\nsamples = 2\nvalue = [0, 0, 2, 0, 0, 0, 0, 0, 0, 0]"] ;
243 -> 251 ;
252 [label="X[27] <= 14.5\ngini = 0.353\nsamples = 135\nvalue = [2, 18, 0, 0, 107, 0, 2, 2, 3, 1]"] ;
194 -> 252 ;
253 [label="X[13] <= 14.0\ngini = 0.107\nsamples = 108\nvalue = [2, 0, 0, 0, 102, 0, 1, 1, 1, 1]"] ;
252 -> 253 ;
254 [label="X[5] <= 12.0\ngini = 0.039\nsamples = 102\nvalue = [0, 0, 0, 0, 100, 0, 0, 1, 0, 1]"] ;
253 -> 254 ;
255 [label="gini = 0.0\nsamples = 100\nvalue = [0, 0, 0, 0, 100, 0, 0, 0, 0, 0]"] ;
254 -> 255 ;
256 [label="X[2] <= 0.5\ngini = 0.5\nsamples = 2\nvalue = [0, 0, 0, 0, 0, 0, 0, 1, 0, 1]"] ;
254 -> 256 ;
257 [label="gini = 0.0\nsamples = 1\nvalue = [0, 0, 0, 0, 0, 0, 0, 0, 0, 1]"] ;
256 -> 257 ;
258 [label="gini = 0.0\nsamples = 1\nvalue = [0, 0, 0, 0, 0, 0, 0, 1, 0, 0]"] ;
256 -> 258 ;
259 [label="X[36] <= 6.0\ngini = 0.722\nsamples = 6\nvalue = [2, 0, 0, 0, 2, 0, 1, 0, 1, 0]"] ;
253 -> 259 ;
260 [label="gini = 0.0\nsamples = 2\nvalue = [2, 0, 0, 0, 0, 0, 0, 0, 0, 0]"] ;
259 -> 260 ;
261 [label="X[37] <= 10.5\ngini = 0.625\nsamples = 4\nvalue = [0, 0, 0, 0, 2, 0, 1, 0, 1, 0]"] ;
259 -> 261 ;
262 [label="X[22] <= 3.0\ngini = 0.5\nsamples = 2\nvalue = [0, 0, 0, 0, 0, 0, 1, 0, 1, 0]"] ;
261 -> 262 ;
263 [label="gini = 0.0\nsamples = 1\nvalue = [0, 0, 0, 0, 0, 0, 1, 0, 0, 0]"] ;
262 -> 263 ;
264 [label="gini = 0.0\nsamples = 1\nvalue = [0, 0, 0, 0, 0, 0, 0, 0, 1, 0]"] ;
262 -> 264 ;
265 [label="gini = 0.0\nsamples = 2\nvalue = [0, 0, 0, 0, 2, 0, 0, 0, 0, 0]"] ;
261 -> 265 ;
266 [label="X[38] <= 1.0\ngini = 0.513\nsamples = 27\nvalue = [0, 18, 0, 0, 5, 0, 1, 1, 2, 0]"] ;
252 -> 266 ;
267 [label="X[12] <= 8.0\ngini = 0.198\nsamples = 18\nvalue = [0, 16, 0, 0, 0, 0, 0, 0, 2, 0]"] ;
266 -> 267 ;
268 [label="gini = 0.0\nsamples = 2\nvalue = [0, 0, 0, 0, 0, 0, 0, 0, 2, 0]"] ;
267 -> 268 ;
269 [label="gini = 0.0\nsamples = 16\nvalue = [0, 16, 0, 0, 0, 0, 0, 0, 0, 0]"] ;
267 -> 269 ;
270 [label="X[45] <= 13.0\ngini = 0.617\nsamples = 9\nvalue = [0, 2, 0, 0, 5, 0, 1, 1, 0, 0]"] ;
266 -> 270 ;
271 [label="X[52] <= 7.0\ngini = 0.278\nsamples = 6\nvalue = [0, 0, 0, 0, 5, 0, 0, 1, 0, 0]"] ;
270 -> 271 ;
272 [label="gini = 0.0\nsamples = 1\nvalue = [0, 0, 0, 0, 0, 0, 0, 1, 0, 0]"] ;
271 -> 272 ;
273 [label="gini = 0.0\nsamples = 5\nvalue = [0, 0, 0, 0, 5, 0, 0, 0, 0, 0]"] ;
271 -> 273 ;
274 [label="X[10] <= 7.5\ngini = 0.444\nsamples = 3\nvalue = [0, 2, 0, 0, 0, 0, 1, 0, 0, 0]"] ;
270 -> 274 ;
275 [label="gini = 0.0\nsamples = 2\nvalue = [0, 2, 0, 0, 0, 0, 0, 0, 0, 0]"] ;
274 -> 275 ;
276 [label="gini = 0.0\nsamples = 1\nvalue = [0, 0, 0, 0, 0, 0, 1, 0, 0, 0]"] ;
274 -> 276 ;
}
